{"layers":[24,18,18,4],"weights":[0.3811974976369398,-1.000040730076428,0.6740899442437525,0.11158343629814826,0.27081464878260947,-1.456569480424055,-1.4315952933986547,3.3334558200734654,-0.9215176855553702,-1.9559860236469635,1.118374817501788,1.0625641719408698,0.02303434859682906,-0.025954265722727188,0.21481711676996756,0.582575361535734,-0.4074439974763311,0.9633284774435232,-1.00737726572743,1.228112678668881,1.8392011732856908,-0.4900153475307561,-0.7578898192201662,1.2426446945156016,-0.06032279535988799,0.09635421056505905,-0.712472154005523,0.09670261483856868,1.6907807835220692,0.28487599393551016,0.4489038569637213,1.329745086360457,1.0276506385757715,0.9618172774276946,-3.6147363736304228,0.21434509943582436,-1.71666581083784,-0.889378035577814,0.007104570556376491,-0.25675460361005964,0.10280375192769586,0.8225073125193876,-0.19083445899216,0.3982753773691149,-1.8773437086330482,0.4601334155342928,0.13826305159270658,1.885362182884496,-1.3045786520979188,0.15962471852701732,-0.283456829228229,-0.43486015671394335,1.0705731273386503,-1.6299856698790924,-0.04701912125134827,-2.770088878096869,0.5179640146894157,-0.04907834130297306,1.4383714696492182,0.3068217744258753,1.6787471511381884,-1.5432446139008742,0.4371111115243415,1.7413190409756953,-1.1358170994981638,0.7566501290109794,0.8045309958235336,-0.05688776124511939,-0.9843549214744572,-1.09402329326228,1.3305041057534819,0.40271105077343256,3.67327447769374,-0.8201109548280914,1.0708683488390665,0.6760533276418214,0.3467415276632448,-1.2487417868742565,0.11548413401345786,3.804774479186288,-1.8335868686326062,-0.5018670770921515,0.2217836046924092,0.5428095562045675,-2.642088015861934,-0.5545425589892627,-0.2518938838199797,0.9276105136747652,0.3337831006812958,0.204839617321248,1.1355001204472346,1.0547011018024617,-1.9540845686685266,-0.9485031381881595,-1.4384499402497708,-0.2078516281303529,-1.843462932940321,1.4252089698370338,-0.5673877356459553,-0.20907114077822417,-0.5223560413619129,-0.3065494749546692,-0.8861907734291563,-0.5794454786837031,1.325349410306588,-1.675294120600874,0.8322207455863574,2.1218422154201444,1.2199171175950185,1.1470561656498948,0.48465098687619323,-0.5972158754166028,0.3711457254085656,-0.5505315788196637,1.091956954736729,-0.0577129593063791,-0.7999623976901717,0.12683345967198945,-0.6412069391372918,1.7352808801180712,-0.47226193938418426,-1.1562306189332923,-0.7816771384445826,-0.561921084974663,0.458720000759291,-0.7896057067519466,0.5224258303727413,1.2276562661906094,0.6540935556004992,0.7309369127953739,-0.3412397993987319,-0.11710189852574393,-0.8528879608029213,0.8926731882236624,-0.775087884306359,-2.5945674417849043,-0.1721420211467266,-0.7104778128524191,2.1361432875956874,-1.3830603492829954,0.4494571337334782,1.0068596292967054,-0.6333155299528526,0.8073382360198009,-2.216409871091112,1.4170661399356712,-1.1859171672313429,0.3398623657464158,0.2612789193786439,0.16046991165930596,0.20711174254290982,0.6627719918907203,-0.4522643806367205,-1.3885038584024874,-0.44022765417210913,-1.1742134185786002,0.4579038609124226,1.7966639115629806,1.1940547596600726,-0.4316923298687013,0.8727744382168121,1.5629110721943484,2.2996074096183934,1.6293158301207589,-0.09372130250845684,0.90099632288777,0.7457196655607919,-2.0158684706356795,-1.102640558427626,0.3476020331418439,-0.44267136767699866,0.3387185298930854,-0.6069756792481198,0.759506324882682,-0.34471896239378896,4.097896750428335,-1.8199651313288063,-0.26241334200533173,1.2176287687765734,-1.5991340114823478,0.4360771172193416,-0.5279284596049904,-1.5450319969772304,-0.7129017969738328,-1.9755931869999974,0.7294037465065732,1.195258944502947,-1.188848188643401,0.9055376738241764,-0.5118514049278844,-0.11904637739882318,-0.13740846516048166,-1.8683339125415186,1.4305979598158896,-0.32159942632020244,0.5371483885784933,-0.12075414985122548,1.0273319629852906,0.2792260477108849,0.1656500763423573,-2.4177491003110005,-0.9586408017891214,-1.9362978553896137,-1.5344429583209591,-0.1974239683059868,0.5722824224401225,-0.8427172864545905,0.6254851394349119,-0.08584189558484245,2.5748134064559283,1.4207113434093324,0.1259585419525307,-0.3670218259380771,-1.6920374900835358,1.03748008365701,-0.8550575301245337,-0.6187068849339339,1.2213620252167139,-1.3688709396355858,1.0313630002077396,0.8693745404035094,-0.6490509857715031,-1.7547839676690518,-0.38120685132181326,-0.6173626564138134,-0.1075859089877545,0.9429740255068674,-0.5247592696831236,-1.073395298279384,-0.27488838176672803,-1.8429030140060214,0.9941712334499342,1.6328780479048155,-0.19014898842506855,1.3767009494586806,-0.7554719368889542,-1.2790477909996216,2.2455934773710884,-1.0067705825329443,0.3677975760690714,-1.2976115461844548,-0.2627875349271992,-0.43894128120308,-1.3224822351024141,-0.39569711346146624,1.1283800342024364,-0.34366386203893795,0.05711733513937084,-0.06689678700426333,0.7318874066766587,-0.4504320432447468,0.015257888613644313,0.6219344378102555,-1.0006321538193088,-0.15094858801885633,1.5072785825606965,1.212649936394566,0.04172337597977131,-0.7230853268480105,4.608538255927703,-0.24612863090660755,-2.45377010818807,-0.39923456903571497,0.9900073282475478,-2.970881996770537,1.0145484161337222,0.09380664312362909,1.2874428011006311,0.853988822293521,-0.0571289195784464,-0.17876360892578208,2.3264932764670285,-0.25237641907107755,-0.47087853773622024,0.4861525595975218,0.6292443476525332,-1.2396141548205388,-0.2123943862921947,1.772884285074882,-0.40149505506176325,0.8645685641467447,-0.19052043729337015,-2.5233928601817235,0.5747810498638629,0.35194577839797553,-1.332312873770691,0.4718847715426921,0.8432334502761081,1.4110951526955602,1.2914166669027627,-0.6541219322141938,0.945100304301171,-0.1864087268159313,0.3317799358043319,0.0735894853200652,-2.4952332079364394,-0.8126708351396479,-2.0659135803794975,0.9958446469906723,1.5789752771118204,-0.9159483634611019,-0.5051702093543947,-0.49637252032474893,-0.36637986865810157,0.24180614640222042,0.679656957401786,1.4630309378020008,-0.9697414493868763,0.8303036132810775,0.4778585414246704,-0.2130065209372749,-0.08000739434637405,0.13843674381482024,-0.44264045978461247,-1.4176202965927995,0.38715430924992855,-0.7697992033622472,0.010139119889840953,-1.4645743390666812,0.4803455694876838,-0.7092526468679806,-0.6391118400580151,-1.912539793348764,-0.31032015660048184,-1.6973830841880673,-1.2401685680586185,-0.06428676870445871,-0.558103813912241,-1.2473373904549137,0.1660695838531569,-0.4702180846702273,0.826087627194998,-0.1400235626019301,1.5121327161328852,-2.330278497117259,-0.2754085602773189,-0.4584932374015145,-0.26073290555808726,-2.475747591682857,1.724837106121052,0.7826466928742931,-1.4306735197532106,-0.5872836452645253,0.3166274052300562,0.3314424082065353,0.6227898824721476,-0.9194293760801073,-1.633579969450933,-1.6647495105655048,-2.70672243362274,-0.8353296060393618,-1.900086179046954,-0.3422550766165291,-0.7487379230308259,0.5525592439252647,-0.5794583019403835,1.6402907850010615,-0.6058081341720856,0.5690539015425838,0.5643021422505664,-3.7789671902603716,1.9778840912590594,0.23222526971775254,0.15169811071954337,0.5605266331774232,-0.7819680244422381,-1.4769264949315244,-1.5402593825808168,-0.5808774946482431,-1.7880400521272104,0.09406604802171184,1.3725959268659214,-0.39156728558335724,-0.2719887782193817,0.7085401112817922,-0.22662291211451602,0.7194267334259317,-1.5900515208706274,0.6394267373272954,1.7777433363512265,0.35164360759294316,0.1805887545364924,-0.7172733276889365,-0.9627671196083383,1.5810708453111741,0.06903469854007854,-0.6370287499253329,0.7294414166724521,0.43118646788246673,1.2076581346120143,0.8473444950129951,2.0656437421281413,-2.465142539246677,-2.5134450658124274,-1.6583854532625488,-1.5142479948349483,-0.5475984802682791,0.25566532141064535,-0.7631375177208436,0.019444962264314324,0.41791327824609203,-0.4579808696302014,0.9114075615412588,-0.5046569978124241,1.130455225950696,0.1458832727131225,-0.11591124666025052,-0.2683830587194307,0.13229999683740487,-0.6511067918882465,-0.030560227747787716,1.1270762526819356,1.45270732498412,2.5615693668882864,1.6611259613836549,0.002561198476086435,0.6160821968262561,1.789438247646858,1.6645533106122068,0.35478201501951045,-0.8798449723096491,3.456324156245206,-1.8949990943079555,-1.2247380199975109,2.4128830282963345,0.08573805496678247,-2.520898709224915,0.3469859404842105,2.0307043966827445,-0.4347195164569389,0.3854003703006787,-0.05290067629765149,-0.5215548410794456,-1.3585044721015558,0.19555342099441975,-1.13778400927279,-3.1289218417396345,-0.30319449043106594,0.4249093153186009,-0.9487106882874555,-0.5302244230341392,0.3055034174662834,0.46938517209594044,-1.1653532162659217,-0.49024114521802775,-2.004409276253287,0.3043368635741607,1.775801289757461,0.2834084696779955,0.23480438657856811,1.2915261965666467,0.14639472019480826,-1.7104704544466685,-0.29809659045840103,0.195689469391623,-2.014699218722575,-0.42789746317726707,0.42044803718682,0.5384307882136197,-0.7710154992666816,-1.0201948872677271,0.6919512283969841,0.09533160951129101,0.8326847000118812,-0.7843757467386928,0.41241682290617443,0.3000117608877608,0.5120927172589926,-0.1466438048708592,1.8905582568642219,0.716466766055053,-0.6804040411924264,-0.20594918530034861,-1.979293044852078,-0.2038259537667875,0.35311834095576267,-0.9643832675407624,-1.922233969070465,-0.4558416401379012,1.6851159404711442,0.0021490248013039115,-2.4261405188126397,1.2530222504291726,-1.428357058470402,-1.2502489377129757,-1.994552487035484,0.9165668053092569,0.2787003220496773,-0.056466794844069246,-2.583423954315891,-1.0401941688412046,-0.7326401102929231,-0.9048671459213381,0.09649077259597713,-0.3682337283234456,0.9155096684677029,-2.3155411494920894,-0.8135512326364001,-0.2540795208611216,-2.354292866213255,-0.16892781840739857,-0.06936429094010499,-1.195543296146489,0.5544820295563205,0.7799011829502266,-0.18977456001865572,-0.7965009828494891,-1.0055761941684103,1.6515577273921125,0.5280461882503013,-2.394187086715559,-1.9033537668529477,1.9348907913467206,0.2551735947915197,-1.089046526133398,0.8277117445236397,-0.07681794824077204,-2.0191746090430027,1.7683579750405212,2.2409955007949107,1.3520141804992312,-0.3513886686450019,2.0158045123065493,0.04838185475755302,0.9823913531644264,1.4911822221273339,-1.1195370145809265,-0.3535824548772859,0.18722097760381737,0.6379675368755754,-0.9593705205197836,-0.33264849295461274,-0.2486549245592674,0.37537500577485783,0.1363020118468059,0.7422619268198586,-1.2647143666860643,0.7969206248553138,0.9940849424646236,-0.20433154749285481,3.118980208005177,0.03476050868136077,0.9292392963482695,1.4923833939077298,0.7446200999655064,-0.4298009679464896,0.5499104830874314,0.08504318755161905,0.6666080348521636,-0.5951628830317879,-1.017404363537831,1.0853548814990714,0.49577259827280695,0.4082903943052823,1.475450157788917,-1.5500391829052278,1.736718007776074,-0.11934221265658507,-1.5622815672571346,-1.156143721176639,-0.5996354388912384,0.04702373448451505,1.1355059672349819,2.081262651967436,-1.0394001005127278,-1.152077407978139,1.3011416280749164,-0.2960397416854726,-0.4139724053772198,1.8695258115007471,-0.33697645654979336,-0.6604561557621664,-0.32060153269482294,0.9105226125390135,1.5631525480808197,-0.20804666958193033,0.17652094494729806,0.09009812439887371,-0.03887860015297345,0.5032303589646926,1.192502145236281,-1.3242779145757937,0.29405462600292137,0.3796035052579345,0.12622978587843364,-0.375572578497677,-1.8106296655146505,-0.6634743005815688,0.5454469212440884,-1.7333130572710571,-0.31963126619774684,-0.11421053905910278,-1.878722903501007,-0.03130515518369872,1.7735602155184247,-0.8862975057327541,-1.3143212902921553,-0.7515408664350968,0.9279958584060293,0.6806895511600546,0.5075651480181711,-0.6964539459221221,0.5025296610517553,1.766676500683311,-1.0853915943970724,0.6175951398929149,-0.028616403688894287,-1.42425502084896,0.5717107215760195,0.5823510370689778,0.17016475182234625,0.3940420879408743,0.7932927989605826,0.48670779634744976,1.6234179680362602,-1.8620842064867908,0.48691030216660713,0.9570749133000384,0.6632883196985593,1.1240231495324795,-0.887185617739052,-0.04054335474177227,0.2882036554834023,1.0583643297599041,0.2984540032677728,-0.3114790709064279,-0.6060288920455225,1.9924787733457725,1.164539362557822,-0.3209038563915136,0.7088025580482112,-0.8323067427503802,1.5979749539888943,1.3227628380425613,-0.49023770509381803,-0.29943009126112197,-1.986422900472395,-0.8332648606979081,-0.5164932464213435,-0.970921215346624,3.8566573653392826,0.33607378134626253,-2.574377697352725,1.4755594918872526,0.6716486003232063,0.28076581905326015,0.2547446740181763,-0.04675011299674492,-0.09784692262145167,1.2959178296125753,1.2764269218761293,-1.007911092433994,1.0846552414518522,1.9291256190865342,-0.8106779931552517,-0.5475818375971911,2.072070998987058,0.4504446301656151,0.5051266023765519,1.1409910688054898,0.7584394548842497,1.201201449279062,0.03982299725081309,0.43285949829818904,-0.2663416733612021,-0.3121421969803924,-0.22473021159452827,1.3822040318047342,-0.8396325749516099,0.20526416209614903,0.6014936167196255,1.3322766011160896,-0.8096592009915791,-0.1371887380899362,-0.6602950907209307,-0.037470674895899614,2.74911772243944,-0.6449932080355655,-0.3693489843923381,0.008391416829678908,-1.1803707594850807,0.8237183852937456,1.0864094840227083,-0.09851579860413247,-1.07012042740242,0.9984645862741404,-0.18922188039092525,-1.4012375281270935,0.5576314955090298,0.5933582149883699,0.48775030011748943,-1.1781090088832724,-1.0678396829145285,0.8161491216130394,2.111815959251131,-0.9610895570323007,-0.8324800044730291,0.8333877411553674,-0.9158315632479568,0.6936239615648282,-0.2834801870051465,0.8218685727070597,0.3457406806866008,-1.9132100277017883,-1.2081034444853842,0.14165643409853024,1.7360525603828703,0.34348180390985894,-0.4153603068200822,-0.9096681390053591,-0.23495185363090956,-0.3174504219445848,0.37606334036519495,-0.6478811023945743,1.9921251045849366,0.6733772143628906,0.16497477740176103,-1.9289011231826214,1.0132014865166088,1.6353878274159601,0.4632513020032428,0.5302464430983915,-0.8916076896692408,-0.8039741810843632,0.6273587404142507,-0.435884965991205,1.1833908859076487,-0.9309776226180919,-1.1508625924275888,1.2404083841908764,-1.6827623836453973,-0.9016719658419898,-0.03513679830970834,-0.15471383081372087,1.7283992209628312,1.6326164279185154,0.2248379686733889,1.0332859883589298,2.1194531026199597,1.482650862865928,-0.7566338962929348,0.061728302895273965,0.5611399012181737,0.69127212069081,-2.1704898923907514,-0.6010857208064324,-0.6836906577526645,-1.7526831054510503,1.5116971290396122,0.2167518564266938,-0.5260110933662034,0.7371366121270794,-0.3957969167997198,1.264295475420448,-1.9625722159363037,0.6196764412993221,-1.4084518940359467,-1.195299323944943,-1.6190028317670002,-0.17266287197475674,0.4079730029500198,0.280720423144112,-0.39636247790541945,0.15093148952828672,-0.4372453719177142,-1.3415884780338991,-1.4189811459915824,-2.3329900883054266,-1.8374417670424332,1.8651927441274547,0.5743751804372635,1.7416917505541614,-0.493814078772445,2.6522143233912963,1.1841793367681699,-0.8255155109860864,-2.4103708455589445,0.5879715546006523,0.2655154381926855,-1.7221485279448139,0.0751554832742159,0.15554641536612387,-0.1935500233634166,0.7860752802728284,-0.6537868955394309,-0.8076976755748708,1.2875323068981495,-1.3689152064864687,0.0254618478488165,0.8722265114964455,2.517971963375373,-0.705234480103263,-0.025089955997937397,0.20210100160730907,0.1370036604508769,-1.9768874674473844,1.0910770325617045,-0.9062390531752728,0.25518252843240835,1.5477801663685893,1.482642057766381,1.1062987875053922,-1.3345611815014538,0.4402985790527961,-0.36115590180009005,0.4946297770419402,-0.8775682257959775,1.4405917115680058,-0.7985836184534038,-2.22823926329363,0.340578980571845,-2.216676305117805,0.35160763539189155,-1.3877445550529468,0.12583795742858123,3.131140877707764,-0.6974093574892523,0.35371144575725233,1.0775141434704032,-0.9316399187743513,-0.34094388692113986,0.5926790200112921,0.20007714111662037,-1.1630655564824437,1.2345206997117546,-0.08946324966530565,-1.485400771380827,-1.8702568212366868,0.07847093766566927,0.13755895602902118,1.0663572592334873,-1.4364881753617842,1.1457536989705086,-1.139962916687134,0.0023086215058812564,-0.16286917278314833,0.6675921524194386,0.4603099498485244,-0.1631218162968177,-0.6549563855884601,0.2730493686854618,0.7897044084525853,1.192766979667883,0.1668992139127919,0.012736277901045034,0.5068147946536814,-0.704001852517451,-0.21036775485816012,1.4353271624754607,-1.767271566282822,-0.8955035359611482,-2.008728318231881,-1.6013327643973536,-1.1912285846593793,-1.6511740806160196,0.03919831033627327,1.0132492477134165,0.9655685440067177,0.49195855282038503,1.1426519781727924,1.1658208761259716,-1.2089809334612927,0.7982225592421271,-1.2218041989946635,1.2450167763087074,-0.5047173165643796,0.8992881652490429,0.016746293207068295]}