{"layers":[30,20,20,4],"weights":[1.2063592096907128,0.6423341675507205,0.12611180232689836,0.38894040926828266,-0.19093208849408508,-0.017221396471697736,-0.6029390222990462,1.547983300403643,-0.10595303045292512,-0.42962704009063124,-0.8288717680931438,-0.3288173007063083,0.5752258992269434,-0.6701149637144692,-1.257237171288868,-0.23429380407653333,-0.11618891794958036,-0.9466938415959099,0.009403656278385686,0.015170660659475615,-0.31370843214390365,0.6172554979331275,0.7872438587773452,-0.4509623520388476,0.5857901049895482,-0.8096406485820229,-0.5208172070896793,0.06672456235728172,0.00817454431847453,-0.20768472441915797,1.0715118757370004,1.3022978902133842,0.4789543641764828,-0.09079761310057602,-0.612974361243166,0.03048616729717374,-0.15460059657250028,2.057071381714101,-0.006773161280049719,-0.6358385876777576,0.8203838417766668,0.10091065000596831,1.0378075447778121,-2.007476572560569,0.8482326992809275,1.0317788784532933,-1.163815914978342,-0.1116628068386655,-0.031449214548722654,0.0762265522043584,1.6235990793822093,-0.3546764166018187,-0.21536505324330907,0.6148745458450331,-0.19615745748347005,0.25778703195908764,-1.3356488478416118,-0.7433374531242702,1.0453543666757215,0.16564349010807394,0.2955810795745113,0.6542722156733336,1.3622187455706112,-0.09189103672117391,0.0011607513739016473,-1.3201458430748048,0.2102154197957417,0.08272246546829681,0.5309490576922659,-0.12610484929446886,-0.6906705498545264,-0.6526837786512819,-1.1177339807068145,1.9880031491641383,-0.46054255544537004,0.07770500973815486,-1.4554193644594078,-0.10696737174715752,0.019866386121782736,0.7100816194960733,0.24196365268212927,-0.7846012743477323,0.31248135973525615,-0.2717450292580999,1.0248517453980013,0.04066006379991255,-1.213857737083184,0.6624760302949946,1.0922913130436716,0.410375659170237,-0.4225492693939091,1.2791653524772066,-1.5553466336725679,0.6361358693310076,0.14466945179406854,-0.3107650707420041,1.3378103639659094,-0.31544301400405306,0.4697034571513451,0.22164220117799552,-0.816557517364625,1.2816210487377644,0.027009953067663933,0.9836894119272048,-0.2501841553147566,0.29801869665056835,0.3635063158805141,-0.6649117767380702,0.38172718776304104,1.1480145043904106,0.2503382739426171,-0.38423662181587337,0.7062484033481767,-0.3087379742009425,-0.2718831292525366,0.09938019913823881,-0.8384436221006368,-0.4923242552812305,0.24277473718461243,0.14253085777393915,0.40965172423675605,1.1293555357787688,0.4042571420056798,-0.7898288272231963,0.1031406259833963,0.6896264929298818,0.0016369625884483374,-0.1913793935055815,-0.02611090391175784,0.9175601178217484,-1.0817419180308272,0.10136356284095838,-1.15673857153811,0.8151790686502633,-0.03299093372890741,-0.6642226595398277,0.34008784025899874,-0.8393674986818581,0.7285299260541636,0.309927871129937,-0.7529511835539878,0.03202612648498142,-0.4835318400151279,0.5470774072055282,-0.6766976191114753,-0.8184244279599597,0.1598380856294024,0.5507606750160987,0.0646573931660335,0.0990768237333007,-1.6165862021429693,0.3555898563549297,0.11474588424161897,0.11054715588256137,0.11729899155559961,-0.05168973813659361,-0.1890655186412683,-0.025831060338617096,-0.18413295302217358,-1.0115755759847553,-1.106791354626117,-0.46527827689782375,-0.1640202888653684,-0.16535916795682568,0.8210369713764695,-0.6110438390009081,-0.4361518098392946,-0.21937521990036113,-0.24886881179058373,-2.0679632785088993,-0.1167650969672755,-0.22103488120938591,0.10884901675986725,-0.09027945857477941,1.084470031411428,-0.1831721180214059,0.17658151489004295,-1.2600488728702324,-0.6622752504864512,-1.1712100484402703,-0.40151235027089116,0.24519770708775773,-0.019538200922391807,0.40581320192961523,-0.2246253543251842,0.42482863323739406,0.5253297961781713,0.7439131285815257,0.015509128540307948,0.18962379933602885,-0.546797397603191,-0.31655576007887254,0.30229030138847046,-0.794583987619707,1.0978846972171026,0.3491107395021012,0.5044522658566649,0.15417657958577277,0.24450458707375633,0.360338995123592,0.4714701261342231,0.8301224418478285,-0.4781642340914843,0.18107621024135764,-0.08840237421680058,-0.6750653791597471,-0.525785455685525,-0.14658172063110775,0.5938879390031679,1.1188620240491445,0.14610757116789191,0.048699532379098236,0.36611043621794653,0.11152193201845871,0.6522068157742549,-0.2658897990087733,-0.8554804145518937,-0.09502470531747276,0.45720703803093976,-0.37617403670603294,-0.04207179057678545,-0.3011744076581483,-0.8799626432417005,0.3365155058581441,-0.4287920711520522,-0.41237748564474985,-0.3579216719724314,0.8960441677422204,-0.9958583765633103,-0.9016168963955876,-1.8892540515220002,-0.18264743333898079,-0.7712214790356234,-1.4683677169443605,-1.8362939533869682,0.10266505890912697,-0.1084524107620713,0.17120336472791256,-0.5366957902923248,0.1327352507870262,-1.0342397109504038,0.5651005979861103,0.07227440458604184,-0.6025975400239135,-0.06694716457759484,-0.4415316942855782,-2.060253082611665,-1.3263859168310395,0.5832727898784129,0.03787518477268137,-0.21159168565780134,0.04082116346198078,1.402890523202669,-1.1894026877800619,0.5527529442929867,-0.3253317761389949,-0.6813322795918096,-1.6076846500265183,0.9119534575792919,0.7368183336365131,-0.17248563224072133,0.576003388738308,-1.0273082568365126,-0.6497516979327184,1.2980831776761352,1.2785804950094282,-0.5353906571772009,0.5787795421113441,-0.06605464148882972,0.7883441940497021,1.141862172766367,-0.4659798550429511,-0.9889132054979147,-0.8207356072749357,-0.7091504641428745,-0.6252878265032098,-0.32136012475039255,0.2231219673641608,-0.09310137115239678,0.6369729568667898,0.5172816648104631,0.0015200593794896244,-0.20942798310588132,0.010584349546779226,0.7039649951438827,-0.6197423029867866,1.1711881346435884,-1.4172902592297805,-0.054997191080055075,0.2884199724511472,-0.7088032965644016,-0.3900390800105909,-0.8128959033303295,-1.1580165171335794,-0.8752964495616024,0.5234490912692046,-0.4328161746651208,0.267677525160604,0.2024252818802691,-0.1712725903947572,-1.1102004471459588,0.5011136083781228,0.34968026922765466,-0.5208678182531652,0.5481700512432381,0.10015241537016523,0.02451602731459776,-0.2070203009664069,0.49589644602707983,-0.5907053730914883,0.19056213199012584,0.042964854132021967,-0.656088464747568,-0.4655282630465187,0.7464418856726505,0.934809123458398,-1.420653959341199,-0.5966461873276945,0.6203887151497429,-0.22568038095037402,0.31706810931431195,1.224558987372248,-1.117209489175661,-0.06654739904774898,0.05524350574586844,-0.19359921326228274,-0.19042068371746765,0.005357829048681602,0.2832929378941586,-0.003956926031976393,0.060585708990035375,1.340917490639646,-1.4064278790602223,0.11620006765897276,0.23750460603460277,-0.1891483208687777,0.5767413191370376,1.3902005456356386,0.9801246879792771,-0.37133219880959606,-1.6038628215559179,0.26569058363424336,0.5772817442033384,-1.0053339161588268,-0.27218214469571744,-1.7920035483434338,1.0581975735920361,-0.05572732628423891,0.5764643680908039,0.08787535843239858,-0.5775579939910884,-0.7936832984709841,-0.004729451137913343,0.3839816116590138,0.6653815607827355,-0.7856961115259873,-0.14448248549486536,0.588655974193012,1.2497792719419003,-0.3498437139703444,0.7086750883943645,0.1483642800118203,0.24728286153769777,0.527637238339433,0.3301036639533788,-0.21542039440738087,0.523222738166627,0.37947147389568275,0.14355600818728945,-0.7491969278716986,-0.2260893139742005,0.6901843840643643,0.17543378477980281,-0.18660207680745572,0.4787545475472847,2.0511242045720928,-0.446988990106126,0.9901020336583883,-0.9977702723406499,-0.6604764615161577,0.5478220372429636,0.018997351337961266,-0.06351910994788762,0.005745544550252446,-0.2980497237117753,-1.7696194067369926,-0.1560717402981492,0.8570391928594956,0.025829466573309312,-0.49160883647507764,1.7405736362325706,-0.4028110301913954,0.5076005251132043,0.5807071448387638,0.04401862875684352,0.018220153426966812,-2.3350365349771542,1.3802722535903524,0.7160983800642537,-0.544587257427585,0.056827404711125296,-1.3637396809790219,0.06211716641777031,-0.6866166306464361,0.4891226972198834,-0.19102513934240634,0.9829556010124622,-0.38457347457084373,0.42010354884879014,0.2195595659940846,-0.47941038124054053,0.9750826172049085,0.025571604120663782,0.07282592149910438,0.15813336761695213,-0.0222897241412172,0.7884227451922279,0.2624956672980147,0.40596119804661435,-0.02247044445326879,0.879016083218303,-0.5755996400749217,0.23426920891044348,0.19201291180723423,0.5177937172638604,0.5656054348691536,0.5170688204428072,-0.49182326301569135,0.6923015961703864,1.3124402426087778,-1.2053379337489873,-0.8644014319775547,-0.7250066682501454,0.44504354067694024,0.3354070930066442,0.7041183455819527,0.07006095244772798,-0.4230737964669142,-0.25332149040249463,0.9811883850472041,0.1424611838976098,-0.0257825379946963,-1.542815956328812,-0.03551146368462296,-1.068744066213759,-0.10113864992718039,0.34664834669388245,-0.30940100708326457,-0.10237380786559797,-1.2725880630821353,0.7260306286879239,0.0760625648774418,2.07704781708832,0.8299077123746953,0.045696586216435645,0.905275005029059,-0.5848468889984813,0.2528300880608271,-0.020625836679374177,0.5375410122520055,1.3636675864591137,-0.7109353940575225,-0.2330943038895552,-0.09396295357193883,0.2045384036691614,-1.7436475022797822,0.13943863827718472,0.07648049019005904,-0.5432038111208966,-0.18364042100130118,0.5568181226371379,-0.24312046181506491,0.31133054082452327,-1.6012096573849735,-0.8446383500409808,2.165546195257161,0.27764121017497984,-0.142403239518102,0.8779687251968671,-0.16112996856224443,-0.33600782105542926,-0.09244544318484585,0.525621201251391,-0.17474415187807107,0.056183087316243996,0.24278476080118033,0.44181473561257123,0.15067125549712426,0.33396802932835873,1.4841704128444628,-0.24256198806481605,-0.3820074487129946,0.24204901278875937,-0.46707507554772487,0.19928679813718214,1.4930807108434914,-0.5111715789160037,0.3721606087990869,-0.398394063056526,-0.2397593150028401,-0.9426362897817249,-0.7256763295004139,0.3828234812688379,-0.08068023952689221,-0.11373561762500684,0.35731467857747745,-0.10109280443746188,0.6670693084159075,0.42853191338230073,0.2834610242785109,1.5725632165187835,0.226078797534607,-0.06933546815942213,0.7660770527001401,-0.9420024283217555,0.4405259270006382,0.9027589017266993,-0.13971845228633048,0.798134165680308,0.2714167446012203,-0.12674273800845692,-0.6378502906496666,-0.7602539234391962,2.010724467025402,-0.1847753902454473,-0.8021195056539006,0.3117825757235118,0.6032195283172669,-0.05727356682194329,-0.1888135462762825,-0.036959344380567485,0.44829812927011453,0.23665931461213915,0.8084659955080675,-0.3838661474521958,0.09325966761781265,-0.45803880012186743,-0.1650564937844462,0.1657262044389054,-0.7867175188154993,0.5278735235610975,1.738275562601322,-0.4053699606990302,-1.9285555362347149,0.7509490555270171,-0.06614618315972484,0.6350499024676892,-0.2407053056793549,-0.04798121475778877,-0.39273872602140236,1.3082950992473374,-1.1500514146489629,-0.09631494445424192,0.1161876064565915,0.05381036589443794,-0.2638492645840557,0.023609716211772602,0.3269105406468173,0.0019046797755362499,-0.49659717600569686,0.6245863007930599,1.029268751326442,-0.1484114329466439,-0.5661001586178098,0.18018140853350462,0.528034483186501,-0.055574378317712364,0.6900730242451469,-0.41322079242519677,1.0107833607528587,-0.7695237911644914,-0.01823801927733462,0.6791458437220119,-0.8909338919458121,-0.7832989209694617,1.1206911637684067,0.2804793621837428,0.16336149347256243,0.5478096143695078,-0.025686140667125268,-0.004793249072527872,-0.7760877693235626,0.6420149904951745,0.5340031396491961,0.10983580621254277,-0.7058744611165279,-0.34656307495812055,0.16599973830777934,-1.1528672797388257,1.4725385003959808,0.23232777686510353,0.5825046857516838,-1.0628643344679773,0.2935167291221014,1.7459334943940448,-0.5571282719059826,-0.5919941538758648,0.13433993258504168,0.8196511173720588,0.19771405092544342,-0.39088718657786325,-0.10166099038111767,-0.5327680808391184,-0.8613346433747788,0.5948465083061532,0.4568832001675906,-0.2918966027455753,-1.204749459764154,-0.35047332954961524,-0.33307455788218376,-0.5820543683369521,0.039311059071196086,-0.5508876937682831,0.9801835753922944,0.10601837196704557,-0.030504609416031836,-0.37709542108613836,1.0596136698627134,-0.056349706168457636,0.286833520805554,0.5584698679093932,-0.3726785806995321,0.6138237449450777,-0.1228501910143609,1.0738423395741987,-0.7721432168313476,0.17162265430950552,0.6093923011342888,0.7241012690459043,-1.2429455145234067,0.11497078865228916,1.5867751583562533,0.4075393011795446,0.2491547918924257,-0.7918264480485382,-0.35530268672999066,0.8250683021211969,-1.5600007626092047,1.1334829195604375,-0.015318068863190135,0.17355252884530264,0.37638089107099987,0.039291856980069734,-1.7092358885478374,-0.1611250183858373,0.7451506140703131,0.8408080274907703,-0.9862543340492325,0.3241392965527982,-1.4699272302943716,0.7765018494113315,-0.09799202391882236,0.2540958478820572,0.33855558165803407,-1.5975273810537187,1.2044554034649018,-0.8699986871123546,-1.1557762901159667,-0.40368305081986317,0.0920971795684587,0.1334457252765917,1.0630728095706274,1.395804238437428,0.18930726012863452,-1.505933574870172,0.5184218180053115,-0.41823190242058955,-1.6870045461426564,-0.48483748616635614,-0.012178206298219765,0.29987722397463157,1.8668711643822795,1.1818994164339052,-0.015186523173301852,-1.1862930310666393,1.186352078554046,-1.099450523894789,-0.19363693415967642,-0.9408549795575105,-0.16535874617563992,-0.4688889154538699,-1.8653090290894223,0.32153985779321215,-0.12880480791424667,1.402276090912668,0.36450481411489044,-1.7812740539791518,0.845545726477992,-1.0005002683808986,-0.17625114722902566,0.5489353026481864,-0.08107527511291213,-0.3754455143293684,-1.0230088491739746,-1.215127289863564,-0.4361729183401488,0.07087666176463864,-0.19361217390074673,1.6073271383209273,0.45424026026242476,0.34266872718945157,0.22223533971427212,0.542896150544234,0.10339206149767965,-0.24898120866025797,0.11897021194338608,0.5997870554343686,0.028905295972394274,-2.0184220093145395,0.25429203838307995,-0.032691877111123424,-0.631293497662279,0.21443537126952428,1.526739182089862,-0.3200685564423634,-0.6454152958545346,-0.7718141250400238,0.16483983392629376,0.015828908971999067,0.18329573866142768,-0.4264277745472241,1.1963310240313603,-0.07068349409725866,-1.131565228668244,0.12787846692914037,0.07502570534112787,0.3644357478388196,1.4013274505045001,-0.18429405009486494,-0.006835121842682042,0.36358291697841943,-1.0035952481919692,0.2411069783998075,0.11684912086289591,-0.3982718099857876,0.17058178896820625,0.241713272865993,0.3081982958030174,0.4279461117790713,0.024179168984558852,-1.2966971395264624,0.8620839657680355,-0.5944017625127496,0.4399279597832226,0.28631987763946576,1.4867693836041447,0.5045569305640576,0.6822895386786773,0.3307277089671674,1.1720915984267977,0.9995977206593691,0.22410051602421222,-0.10501992082630897,0.9753627363048685,-1.026615974768273,-0.5529806386343654,-0.6312144106680477,-0.47398095007517704,2.18390484576866,1.0403245171769475,-0.288519623799144,-0.6947880821431154,0.8989131106180799,0.9854346837871503,0.4463119192303472,0.012283931090553146,0.5438568424821006,0.6695917177763266,-0.5961558536454299,0.2135228730382305,-1.1024138979853528,0.48016460595976485,-0.8317864099275392,-0.6306592791723373,0.9214678773139126,0.5609330047869655,0.31579996343178274,-0.035913178150978886,-0.37349699877409925,-0.6222376881744233,0.06127772706689738,-0.377725421562923,0.7669274971678373,1.0601594615185728,-0.653890791927888,-0.2919629848284001,1.0867327896618508,1.2573323668501288,-1.0404234373598413,0.34022308802450496,1.8096789096841568,0.19551192391570052,0.5268459215614184,0.8277169036223965,-0.6498584614823792,1.496566221629101,-1.19451637127182,-0.3305388589141942,0.16397202192597893,1.0358107559014695,-0.8724911665853321,-0.02739460604180388,0.14896656047749185,0.6927028996231357,-0.9702155866523383,-0.02182463192588391,0.48527600356321304,0.5097831924905252,1.4139542673711774,0.10427621229780441,0.35671888523743656,-1.4583214666093145,0.10646985184039248,0.2599644901509391,0.26230723373086984,-0.22303237576986668,-1.4222108284801946,-1.628749900869456,0.726203016097662,0.9138514088451949,-0.1502314747045856,-0.6950406902723021,0.5057883223403373,0.8863178871883427,0.6215479989568164,-1.0387800960753482,0.09800958973010543,0.6925223144207293,0.2413058147028173,0.5769566618310407,-0.3824711533343931,0.2178007781939435,1.657046276831483,0.12422556762139855,0.557110895686223,0.6804800237353654,-0.6755952680384121,1.1813086681178375,-0.26201938820678344,0.14639609442175247,0.32000193383033,0.19724905085287003,-0.220577022290737,0.685324242339767,0.30947194885364027,-0.19359304736128247,0.1412176288228423,-0.3214240512621162,-0.7034409628715291,-0.18624432701268023,-0.04947941462056882,-0.2684585896604683,1.2238715207182624,1.2326133671211847,-0.8993148814174348,-0.9592387116184724,-1.1608003201567292,0.6827057020046339,0.06381961259281083,-0.91783386228774,-0.33939676928373347,0.028725638915356566,-0.3621063895007097,0.6034942519434581,-0.20442711120884727,0.09177270552804831,-0.19983922824330058,-0.5994950087628064,0.011139635558053085,1.2310082568355158,0.649625652049872,1.666903285200176,0.539020304510559,0.725455665948586,-1.9280053596519255,-0.75259196902795,-0.06112156093970798,-0.49855926430105235,-0.20193384481623405,-0.8290383936503263,-0.05890792729042327,-0.135853909180437,0.21021745065975,-1.1650408130072467,-1.1656857776053595,-0.25742801259325454,0.05892665092294972,0.7787407500702734,-0.6919504318814249,-0.4592065124092823,-0.6577619016716136,0.6641287927042367,-1.1896501501745624,-0.22179238768565224,0.35435196506626354,-0.12240712035227491,-0.23225986950997574,0.014583661729166114,0.34596554573301674,0.5069607704644791,-0.2699328494981827,0.05426295025123737,-0.22781233417235738,0.2183377968919053,-1.1542699734413375,-0.9770806542336676,-0.4411028635283677,0.27923707024148814,-0.7388848948761242,-0.12336666597205814,0.16084051499544305,0.21846600252322174,-0.050124934607771565,0.7337314684635298,-0.3176095575373249,-0.24639425540332544,1.3486954515622498,0.6339301499525998,-0.34779630366189446,0.758647276482364,-0.5909603505823826,-0.82225515250519,1.0068019049020507,1.7070544636943492,-0.7173522465773046,0.615873518675534,-0.5148148867896369,0.1294300416970427,-0.9879676873533904,-0.6230025946041159,0.19253439221286317,-0.15906191248315307,0.045063911584251354,-1.2416897057249243,-0.1526780794671077,-0.9611015683330641,-0.45814236300861816,0.44658116445266643,0.7638349592222613,0.2807017416804813,-0.8239465510174504,-0.9889276320812633,0.6539182832959467,0.02726253922442591,0.24738922345722608,0.4059199712166343,-0.5761759822256969,0.2848336740044045,-0.8332450871346251,-0.563896966728916,0.2642673082453275,-1.952780139494728,0.03198430005502194,-0.26859441473029916,0.11058099456585813,0.3164165381249293,0.01988283447021131,1.8166749163466176,-0.08610498172862091,-0.6125208606094567,0.21690869260952494,-1.3923299126882946,0.21024622300728035,-0.3384496153765426,-0.3062087430220449,-0.47994506991961877,0.3846478577415905,0.546586968768968,0.036750603556266914,-2.4712744027396094,0.7528920966322052,-0.5346330485054558,0.17451626975276952,-0.12742825127810828,-0.15508946190371242,-0.0002183104610867792,0.40616045888381025,0.19058887211564712,-0.8586070481421373,0.22491095145229312,-0.6185237265935786,-0.9923304474727048,-0.18250522319151685,0.3295210071066459,2.585071297035319,0.27978331152104596,-0.04275292856245183,0.24866815038445533,1.2422215856671386,0.21229562250700668,-0.3349534156189617,0.04725367341845562,0.46606782376294187,0.19144290891170107,0.1820726002939848,-0.1039159611887237,-0.8587392460435852,0.17526278509639923,0.4820731572957395,-0.3594710751132069,0.4919101801939563,-0.15688312157152287,0.14835543571672538,-0.9057709623948901,0.003247281094587634,-1.041647655631776,-0.21805975101586123,-0.1300267169040483,0.23876852289814596,-0.25883861052701107,-0.5519426886560906,0.4341634908011169,0.276761139762052,-1.1614322763406262,1.179091735441312,-0.8457569623435055,1.2760108864229827,0.12336689713567604,-0.21701276366881397,-0.3125257276640453,0.21510292346363044,-0.4966831562416182,0.28175780499640823,0.9512626184504759,0.7452829864804584,0.44503241024699036,0.048891804649238674,0.6141028744466014,0.044812381845828975,0.10452763764347957,1.4712290047347956,0.012742177093683305,1.4690549099912809,0.20434530484804242,-0.13610218081808745,0.6765967775908098,-0.08922617035205899,0.5671890595287614,-1.8163938094612342,-0.6148423371033902,1.1001838275355673,-0.006466477747490096,0.9848245603215645,-0.8110134003539269,-0.4441725685921202,-0.40686294992684996,1.2626553803832763,0.7259961054906223,0.7947563127365789,0.45109330761900684,-1.7759548085037937,-0.36282193439069305,0.7398792748117484,-0.5009343045878724,-1.0133699156134734,-0.38092153272826207,1.1445051751735038,-0.49413810695241434,-0.018868824396993958,-0.07355341309494029,-1.4051818063657595,2.10030716134578,-0.01723444005049396,0.25012752907299884,1.1596532052127968,-0.002042462591101135,-0.19453889266367957,0.6042775538285607,0.12359348458563427,0.038353930023494215,0.630751917884226,-0.34684884238298036,-0.2636847380832274,-0.058281281694985726,0.051495388061512375,-0.8424186561692867,-0.5258416254431835,0.8198444099472288,0.3377721302495903,-0.7193168601283191,-0.3924210592650189,-0.5246875837300043,-0.8340733778659741,-0.6949710906238511,0.2932358926531161,-0.03601300518579411,-1.732168629912656,0.29773694359526426,-0.289035715655135,0.7906961359964407,1.041665514327667,-0.15576701794919035,0.18759106852042048,1.1231579736714083,-0.169736824683167,-0.1520680439012806,1.019693209340685,0.05758592047215094,-0.09390878689994722,-0.5682528931749038,-0.8526240024274375,-0.035891718153929844,-0.42640774830086076,-0.049101791067080194,-0.1332411844029162,-0.057484682083256966,-0.08612568469202253,0.0661122003412249,-0.12310715269473507,0.14938048442549823,0.260866445625365,0.29891131851365604,-0.24139428634137733,0.6706731658830356,0.4838168117922381,-0.1811491672882336,-0.2950227906409856,-0.4673918899489357,-0.45705981536961887,1.8524758675736583,-0.13947484304965904,0.38469601799512076,-0.08741981964977837,-0.10817240003307496]}