{"layers":[24,18,18,4],"weights":[1.1731490230621258,-0.2822750820281636,-0.5721504932270363,-1.1272821043199168,0.09972977229442337,0.553659600168612,-0.10136295843657545,0.396045386395231,-1.703883646786969,-0.24048087774868354,0.133754962089598,1.752624198707506,-0.942220234112097,0.3455093581566259,-0.6249965155385427,-0.2285240283975609,0.007182223443210539,-0.854158807529121,-1.316286479411267,0.005810016072674201,-0.015774154133868762,-1.738330302095354,-0.6269990433642136,0.17475948819632808,-0.21684486591695476,1.0695391526916866,0.8596928309007442,0.3218180280251319,-1.0240207231080438,0.7821596406259543,0.4272701068836542,0.994932577645477,-0.10825020108208433,0.29190081950734464,-0.7873713220571904,0.6336646871780084,-0.8603559817562508,0.7465562227777556,-1.4210554709635719,0.6337450899926381,-0.5099145889226754,-0.591297511187979,0.3023605479275647,0.10154802074890422,-0.06008463279149512,-0.2881280852415696,-0.3065124641831568,0.5291957138473677,-0.43583713298584925,-2.0636564622410387,1.2617613639323455,-1.0973418688023169,0.039421527581609994,-1.1017631433371082,-0.6377533735224995,-0.7148415126513518,-2.0734066426466953,0.545558695242296,-0.4649543347678543,-0.8496005105279925,-1.6872022045731847,0.9848074727732413,-0.7410753536373683,-0.1935290456769908,0.12963178279861504,0.2889490769719547,0.048839517194280896,-0.4387691881355712,0.05710398254347293,-1.0303371126436207,0.3751802192404709,0.1387758684318492,-0.4492536713839484,-0.1620804999861422,-0.2957152113366338,0.3992873443890986,0.4937236670838172,0.040657286045966176,-0.5986824195230908,0.794570571204905,0.1553895720560895,0.8955811357246817,-1.6302218942074707,0.07979730462227577,-0.014001627253687282,-0.5598224566390362,0.6044719114062862,0.2150388960720178,-0.9281013573180065,0.31153440871777366,-1.4044909363697438,-0.505841266520715,-0.009729554817883068,-0.3069576007818819,0.8396683767528698,0.5133543480700117,-0.025176277021803497,-0.10838863378898139,-0.6702468624868444,-0.054320375658186815,0.1293338562880904,0.7229198704015728,-1.851780948893954,0.6936916800389268,-1.275462992237523,-0.15942046178852454,-0.337008628858156,-0.328832129951122,0.8613738454969077,-0.006699797822284317,-0.6828440181709505,-0.5787875399080634,-0.08134366591093231,-0.611658509165669,0.5562440074319659,-0.7810920088956324,0.9315462530233163,-1.656241538206572,-0.3059236071924332,0.0314813483421212,-0.36475221897643284,-0.3835322179279265,-0.1289301612202845,-0.9922263435653513,-0.6194707456726276,-0.8382888070493788,1.3257952628575307,-0.7105481600370547,0.042849937397691884,0.6847077554361025,-1.5391018792818856,1.1047405902434733,-0.7795164340831264,1.633153020891266,-0.10744678046274914,-0.28478003324601625,0.5939462863735945,-0.6087002740206711,1.1334388782813507,-0.5545194665345239,1.2763017665348948,0.04621362544731883,1.2977347501980563,0.21679355102579229,0.18651898983783216,0.1485199994700097,0.01567165792066333,-0.8098252870232115,0.2328019710688783,0.05449300541883806,-0.901221134355144,0.591698611045478,-0.43748643270366716,2.1243125197824746,0.47692333227285477,-0.7429860041613938,0.5115758767094204,-0.05962382616634998,-0.22160934667355076,-0.10564966297333361,0.5934705674630174,-0.011847964220261853,-0.3690929846549888,-0.10389472835203933,-0.08839051561812311,0.24658454803039973,-0.8448166776492222,-0.018523756743441866,-0.5687408869235653,0.0030714076290170866,0.1545272815300388,-0.9311798226876331,-1.3169630902817795,-0.2089309229676939,-0.24560822071277885,-0.0889591617232344,0.23097335699001786,0.37980789640201823,-0.7859375154260332,0.29539501247106503,0.46841144991103023,-0.3276149483419305,0.10015268886610668,-0.3632088416235288,-0.09045271964653312,0.9944247807014797,0.016388674055675456,1.5066537053012146,0.8631795055484743,-0.8401748967133356,-0.48301468366075934,-0.72453248651251,1.076988984269287,-0.5093425136843792,0.08015076256103135,-0.13204710740754966,-1.0382412923539053,0.192809989247428,-0.009062997320539072,-1.402245896660066,0.3356709220062123,-0.4009358514986272,-0.6097209871461284,-0.024727111345368424,-0.3299195838914531,-0.9134802290142598,0.5727950314649429,0.11240363708372772,0.20514890745326336,-0.45191986911038345,-0.6925999554488211,1.0598606410411389,-0.9323621952749613,1.2160381280317005,-0.23006750427635542,-0.30010180455783164,-0.15946521756588586,-0.8908835218119712,-0.07729388637249623,0.3765235480688613,0.868867650806063,-0.23436402961224354,-0.5249952876713315,-0.03064550905319907,0.3543898464861476,-0.5925774088024223,-0.6075225180750731,0.9959607152307102,-0.3029961374490366,1.502341083244678,0.3008251767518232,-0.4493677556433207,0.08127635875278738,0.7002962326966754,0.05310650340036521,-0.06154668277945946,-1.284958553043691,-0.6234189007162656,-0.19286727283366076,0.8005020052984524,-0.6806539616485316,-0.6459867801986522,-0.3416651789632986,-0.9465665131624595,1.2708522456661766,-0.18747252501016543,-0.89602443430585,-0.6553328878814004,-0.49025260231877266,1.2594649562184954,-1.5079068379150127,-0.39759929272936445,-0.10007906212947175,0.11429165305227525,0.18282349981224486,0.250351901645155,0.13437312476622915,-0.8034193611123718,0.4120003315029753,0.22468086091402312,-0.7512643098120453,-0.26598197648036725,1.7796292756178544,0.9283540259852883,-1.262471240734112,0.650706678970459,-0.22534993400546433,0.55766312175991,-0.7738900004822286,-0.5362685343964613,-0.003916389387857905,0.2850247635727866,-0.13489261108624792,-0.887361659963147,-0.27988381121872674,1.7187665558688487,0.9153317333144161,-0.7771577112562436,-0.18247532907579214,-0.3566073315153193,0.5080460386443972,0.6309695472565742,-1.3312421117665523,0.0876327070695804,-0.2736095663993295,-0.33048794872997905,0.3754720713724734,-0.7065832042993232,2.4251315618953875,0.500173859705733,0.09962774084130087,0.29898086617450764,-0.4406964257856279,0.7231518675279571,-0.7229710427694105,0.6174706323674852,-0.6107397602057393,-0.23330991263618336,-0.11607401208644752,-0.9751254776580991,-0.658507213625324,1.1466257540322027,0.008564620661249217,-0.9093912039024027,0.41882680488651713,0.6384136981218509,0.1788838300428628,1.0945383441174454,0.18244110525754864,-1.051312671559161,-1.1365566584140265,-0.3200904247701919,-0.01752335349477062,-0.30588899040815837,0.2075300964429495,0.19848099523322965,0.100285507345522,0.08402030713647066,0.04807141646017832,-0.1015632265694904,-2.886210828870057,-1.5544457336648905,0.26420506466874344,-1.396732912163036,-0.2732509136650022,-1.3338970625578963,0.5344228261501782,-1.2098819173712068,0.8928286319212069,-1.0274722581056446,-1.1636410691584969,0.45617453069644404,0.17165919824869771,1.0792928113205869,-0.6022624688249049,1.039440184751492,-0.16179792974508614,0.09691096611503107,-0.29127155484558276,2.0389050966706592,-0.18799060719805252,0.04418048100270709,0.9937099594351224,-0.5067440258732527,0.5804936442482551,0.4575018823959958,-0.20971013917070844,-1.0987731739517115,-0.10947064475996568,-0.14581745825064107,0.8571271518341295,-0.2400271620589381,-0.9324130493882007,-0.6302995027078139,-0.9035197757932754,-0.10039219173541178,0.26350961437291165,-1.0208483356740097,0.8289399272864161,-0.36694312165967663,0.2571653526403479,0.5773060844630188,0.3856821616439872,0.15639377160727297,0.16144566304961352,-0.2901253881152564,1.3564634798660107,-0.9372955944923353,-0.6530290691485356,0.5035251994289702,0.3526796027732627,0.980626168648412,0.16990067766264308,0.6521992010514901,0.23899672777646358,-0.22101130154414897,0.8959287273491631,1.3443292809392926,0.9662921059445464,-1.3188919334877782,0.2662218722695812,-0.306433391215435,-0.29631025551675116,0.6750740661884218,0.39403135494858155,-0.09805546651597272,-0.1647755737440152,0.4677270761278333,-0.3506442102134753,0.7084049907499387,0.3515544947056368,0.15214493946755525,0.41784741714988244,0.06874649722083405,-0.19947315514547198,0.9126558659489072,-0.20957113503112929,-0.5015444122184467,0.1706113272457041,-1.0143484798996052,-0.11913888607130818,1.1591569316740906,-0.9827482013586992,1.5787050754392546,-0.14741022093175205,0.2368590568878557,0.2804892792780998,-0.5868759366124845,0.2160357160142342,1.2261348103187844,-1.8511812325488757,-0.5631560543226992,0.7037622079417027,-0.36955938108987896,-1.014305165017356,1.9642580422906708,1.2573212081343512,-0.22361487974711156,-0.4254493280974918,0.8402949696477579,-1.9550120428566797,-1.0653728605344697,0.12475575454553794,-0.38148451700403074,-0.7359240034537805,0.9102986502517394,-0.49667645688791673,0.03171933209645654,0.5764501803463606,-0.852662054076025,-0.025513045574653184,0.565605388678708,-1.0029997277113252,-1.3665899678411895,0.5004116154854246,0.1565233390804639,0.6667313844789953,0.2973086367750693,-0.21364047462074878,-0.2224459034370102,0.3985831039610274,0.05137553077397969,-0.25335167157932825,-0.5279838534048829,-0.4919262925249169,0.04403733051617964,0.01833902973274984,-0.06958525093781637,-0.05049189737323004,0.06679975486741135,0.4343665837435631,1.8417496985429689,-0.4768500881427552,-1.2087326149385758,0.9356464082469672,0.37479563547512207,-0.3193825245896179,0.9431951404256054,-0.29935122729657593,0.09305851981563601,-0.8555929754753433,-0.48108851756099386,-0.21297720210264898,-0.05676763531360893,-0.17209524180279892,0.8953697125251867,-0.5396945448714552,-0.541098346686738,1.284811789902073,0.9008587382033351,-0.2869174958562171,-0.4991482514660519,0.3324739858792179,0.4416493639865652,0.43057587043402523,0.18229655497886268,0.5407189969232725,-1.4297944434577408,0.021474793045288154,0.33095080526972054,-0.07294093616642491,0.23705070501054568,0.30282017898981906,0.3657293422693023,0.7481399618675251,0.6920249260925742,-0.7376614153626391,1.7979910459041453,0.07000147568599846,0.06352189542733444,-1.8302540537244358,0.4507607160427204,-0.5404541535647439,-0.6155310519361088,-1.3134196605937318,-0.6879887949035697,1.017207467663048,1.7991718200193736,1.2633779144551898,-0.6530345424110634,0.5862669795018849,-0.26119598466076116,0.04053010346287389,0.005178498957111616,-0.09191036261417562,-0.5714189510485107,1.029068585434982,-0.5643751452738288,0.1576557103171663,-0.12037029461019808,-0.470212048380675,-1.4752658879708052,-0.047270572418404655,-0.8475224599734218,0.7539130731362271,-0.4872869267561588,0.14067035771567404,0.23005638677275914,-1.291912422045695,0.20255611747668212,0.2832100091574338,-0.9309531122610943,-2.1903140258317952,-0.4043616252448622,-0.18127204835449603,0.6774299324603166,0.26747480515387706,-0.23073768542817522,-0.06595927437483115,-0.28363216425349336,0.9570019906676906,2.0854883574868426,0.30530793687654606,0.44698458713950007,0.5849363210096373,-0.07334758712683564,-0.16584754774658209,-0.22762201636601465,-0.15562060242529224,-0.5133720634868686,0.4384630644041269,1.1724612190228776,-0.10873031102511801,0.9031595518577636,0.7336347896219829,-0.6470218835995478,-0.29153227079366706,0.46589144731512344,1.429026522207825,0.6370372545596528,1.0718439023448552,-0.6631371081043121,0.3146851149908047,0.7768736730912097,-1.0439123378560826,0.6866763170254572,0.03661742883828791,-0.31212835546665957,1.2626966842821785,0.61011843391018,0.17135212775544822,-0.17420447913729642,-0.20022937353623999,0.39024971743026493,1.3267191009538748,1.5479346002548455,-2.0713638674826056,-0.21761239985255793,0.22401563391682455,1.0678481727798173,-0.39141995967239773,-0.4038131213357694,-0.017320880732928867,0.9700931009857214,-0.17334344703331414,1.3734234855298038,0.3622722328824122,-0.6468890927914088,0.65669317102016,-0.0004419642442912708,-0.6570291614497978,0.22659050306568632,0.22488628195414642,0.21240521572118598,0.4703593688290682,1.3433274270140938,0.6758246565540607,0.37421777140315754,-1.1403989553091667,-0.02613783360034838,-0.5039148816485173,0.2597339272849146,-0.344154072566609,0.3119841737858925,-0.06391657048764304,-0.2485975356906083,1.37910415256445,-1.76105526507431,-0.13536366928814936,1.9399323997573599,-1.1850505884628861,0.6984215530097071,0.7045143641273184,1.6952563030053243,-0.7938202250148616,0.02751837568466617,1.2407809782720296,-0.3503516518031153,0.6188221256959252,0.9115990922917496,-0.4683751405193393,0.38220669705725674,-0.7535679986994416,-0.7566228770256285,0.7923588024813781,0.9041794767490896,-2.3541205362971214,-0.06261641885146796,-0.4922365028287244,-0.7315541553044974,1.0416779630872532,-0.11521288111595707,-1.584712320200924,1.404506792881441,0.003836927503957893,0.10220261264378576,-0.34864834457098287,0.4797668320708922,1.0465453622579033,0.15370186798096488,0.25269616461824207,0.5763466643683438,-1.0088640553400607,0.2254148841498998,0.05625617648730527,0.7317522315347865,-0.4184982912377463,-0.2973481452373768,-0.4128994490206541,-0.09294753017108033,-0.1971569324507658,0.3733451868849247,-0.9528906982238023,0.3978009618118175,0.6436549153099865,0.583453349265729,-0.17072273143595107,0.7940941638605628,0.6002918779471309,-0.4563347178995399,-0.7612264382177804,-0.5419242447037939,1.0283783453727793,0.8150360989916223,0.4057764863112182,-1.1841878448833358,-0.48692698420928343,-0.05372875338264016,-0.06167202684220338,-0.9402230467440221,0.9229660402680024,-0.014482990031938994,1.4901479481501758,0.18143268151055558,1.218538987381185,0.12726912492595402,-1.2758595632122685,-0.07220179141666871,0.4716371333820071,1.9100127227942447,-1.748216171297035,0.6494590970057509,-2.1609633957927654,-0.6366807335018112,0.14634967072757804,-1.6050672815252822,-0.45792906579671433,-0.2992634211365059,0.24936134571424481,0.196398609237125,1.0262076902481185,-0.44865484638716835,1.649932086934582,-0.1584959659790161,-0.8945278109599659,0.24129735535895408,0.036409864921449465,-0.8234457357693339,-0.9876677115866088,-0.6036766934917617,-1.100655120482181,-0.19232447920630877,0.1648632975283149,-0.31240815886730255,-0.6102074626986358,0.6518921474403219,0.00856731252965813,-1.1870615096217885,0.6097640682310872,1.2021533454531599,0.0239138564948976,0.3197104012095867,-0.7159139709082947,0.12359713090803262,-0.5495252615538874,0.6297644641470714,0.08144950479408661,0.33250385651220354,1.4118202056037796,0.251180656081763,0.8486288682252738,-0.7114391253203229,0.7390154909015291,-0.38701198328801567,-0.11104426737684273,-0.7401146377926685,0.5411801074102451,-0.6728249916716786,-0.5436280663969271,0.16282536347157622,2.0759106990586575,-0.788843123620872,0.5849367962614962,-0.24109304694439437,-0.6680994982650132,-0.2751427651284807,-1.0077565276478369,1.0433786289302898,1.2501047719273979,-0.14022673894702536,0.2711918295089558,-0.7944976651733935,0.42891009259258733,0.8443265489951244,-0.8798015185490677,0.09049246364140773,2.0986326393001513,-1.0527907767709426,-0.2205379383161593,1.396048207878548,0.8506410960678804,1.5411001512514821,1.107893578960162,-0.5094270659518368,0.1562755829032913,0.16196228469514662,-0.7675478225323032,-0.6376052294603117,1.0064182062468587,-0.5856943150610827,0.014589736271446524,0.1061207780718961,0.6940631660171726,-0.873524265472419,-0.4315484942524507,0.5696589561505261,-0.47292684953045233,-0.6000002395720783,0.5286366408111234,0.1435452205887242,0.968157888118127,0.3860356710820524,0.6708531550970113,-0.4279198072627987,-0.5469717372492988,1.6665173665440611,-0.4008345838954317,-1.4137962181042425,-0.4388264634007897,-0.13797245276510553,0.7168632292193902,-0.5646478341022964,-0.2988958915806733,-0.5698277196634338,0.6713975973778807,-1.5110961844271333,0.07456037005902602,-1.9331680499946593,-0.03317967678650391,0.04430572006619643,-0.3168566841438596,-2.309111221234433,1.6372813132760093,-0.43063197281313415,0.48100907023738043,-0.35392402853699934,0.331618935638457,0.6292556626213018,-0.010848717282029352,-0.8296329192090781,-1.205330572104028,0.09602564130533159,0.5863185886448398,0.47122406890596175,0.4910142409551398,0.3583315030284223,-1.0178019869544752,-0.23313940492353175,-0.18187277483974107,1.945561080650061,-0.6295991984288017,0.6628627841892623,1.5489073049166895,-0.16758001214405932,0.5985177252928551,0.737135795514326,-0.447342209941467,-0.9052572271548008,-1.3110475908535966,-0.4155470147812047,-0.3657018114172482,-1.0150649580090976,0.03373684430479634,0.3557166405922554,-0.49214362558533653,1.2768821869115663,0.8743630019361929,-1.0249103425880237,-0.2139522402236303,-0.6575276875725232,0.9023140966522583,-0.23928941127953762,-1.8846350207918219,-0.8384608718273345,-0.009721050303297812,0.39598215776367096,0.30214649954164025,0.21360612897069267,0.8327366010219645,-1.049765855048056,-0.02152201905280754,-0.5358494718957305,0.07490837784975365,0.3214692837547157,-0.6863238521433233,0.20169241546931768,1.1609494873716892,-0.4472886091890552,0.9224116664579152,-0.9707236727254978,-0.056769560224982044,0.02569269259406674,-0.7018042544331611,-0.42740013902109497,0.046619428410526964,-0.05393096966742722,0.004799530087074455,0.9194859673789721,-0.22758478634505636,-0.074481969917127,-0.8768104273633571,0.029098945540216165,-1.357062780445073,0.024208223732430617,-0.38981566694641373,1.3260110104130214,-0.56591408811952,-0.374997237600351,0.7144561888469046,-0.1788982008190254,0.37429281164418343,1.3438430229671456,0.2926658748461566,-0.46903266126511955,-1.1080799314576388,-0.18674394113448745,-0.47315185821523764,-1.2767028567455163]}