{"layers":[24,18,18,4],"weights":[-0.028539952383672018,-0.4672413520656624,0.09606049680744319,0.6596510442801018,-0.346224062638373,-0.009402418401879012,0.1766806826042724,-1.111383217270005,0.05631782079541093,0.5007961561482237,0.024840949846295757,-0.7885095552982759,-0.8068444998603834,1.6744011251685562,-0.28615942118000715,0.8414524181617064,0.16629033696380635,0.41401964592676826,-0.9533083976451779,0.27021132556745786,-0.11679167126003404,0.18013410812651937,-0.28924419545454383,0.3004828684348236,-0.1258130729108469,0.9690184307125919,-0.07903067682966335,0.09469185603907612,-0.2379130059888137,-0.7924145822890661,-0.06842176370522253,-0.3378724034891989,0.06879047918432776,-0.05145354818297533,-0.38904116394874355,-0.8787913258894846,0.65724330821221,-0.22311029167449314,0.27183692838646284,-0.6491575573369441,-0.45482435883746003,0.26934263113534257,0.18221202988629262,0.2474492145413331,-0.06117650893935411,-0.2656591471084184,-0.9236875307775834,0.2972650698461151,-0.10214023382216829,-0.3918802162981752,1.01317683333416,0.39838375940451143,-0.12657642342054132,0.5626240986766817,0.11445788087348699,-0.8330669205609459,0.2475594262526865,0.7501965735631979,-0.6989538087786447,-0.45937934412533565,-0.5915356260315336,0.07499741500300816,-0.19195838714591115,-0.9427687233462471,-0.06766500235183395,-0.12802176634608206,-0.39786405732916186,-0.09869056817096714,-0.13912683288901592,-0.04882411764180817,-0.3371994239544669,0.06549876593706541,0.7670212998364584,-0.87252874786268,-0.25163234823919145,0.049836620770628476,0.0581225953961323,-0.06572720374025906,-0.22141711081218526,0.01237496952260719,0.10593221189322705,0.4859913727497739,0.5326060388806754,-0.7902563168795523,0.10582598504341867,-0.3558816997641911,-0.01858308281234139,0.3000643477166621,0.8792365723689506,-0.6131364638054226,-0.09988608999871365,-0.1244822729305155,0.03728199617327109,-0.2369723624150497,-0.31197079680470113,0.8352871571053273,-0.5492033717006491,-0.11057716289916042,0.5257794827059793,0.4026096751302144,0.03316879615064855,-0.01635671522328093,-1.050482194106221,0.2841414664145811,0.14616787599640976,-0.721546359342824,-0.13939810313511294,-0.7367161052186402,0.021352951796277053,1.0353287735441286,-0.49555790090844104,-0.5622321739908576,-0.005957792791965566,0.43734732890100103,0.36889108389952696,0.025722410301481643,-0.9987274383704958,-0.3386607645535846,-0.16179798616631574,-0.25395326640595844,0.8685152022763024,0.1507295803349245,-0.028603315108779975,0.08756094627262512,-0.029032440410184546,-0.18659839175213794,-0.34676258001224175,0.7229314347498079,0.21314553364756392,-0.006103500091706179,0.4263389181112372,0.15247703582038452,-0.014239760936940571,0.40272216490271745,-0.4477488645614479,-0.1987020742102839,-0.8534205282274581,0.3933750186407312,1.3399721231554742,-0.5238580332581962,0.823043354672191,1.021602769713986,-0.08830866122867426,0.04870575725083612,-0.26823434175774563,0.42846268363526724,0.16648765121679357,-0.8368106869696311,-0.2886674834777208,-0.035631904231736726,-0.340018784004444,-0.5654960962768204,-0.13778793490315525,0.6933789685421803,-0.28699130453890076,-0.03919681784798793,-0.18905907837770686,1.2110697977559741,-0.6743259582682064,0.6369726363838385,-0.5785728330968333,0.0025494847836479706,0.058629982173261486,-0.963597822542394,-0.16280283054991398,-0.4439087785550641,-0.05745970119315293,0.21710499364222385,-0.8228748123977884,0.09688457436895832,0.21847385969493446,-0.422984000722483,-0.19792162276311048,0.15189229442625185,0.8154621854081354,0.22873985390931872,0.07537649393763446,-0.3159618136538059,-0.2377251665556537,-0.18732955982383662,-0.5130286045218317,-0.5748718443987152,-0.411530648271963,-0.13755416001973114,0.9982125415878066,0.15338607318493658,0.16979216125906893,0.25885602373640126,0.6200180125969037,0.31485194007350886,-0.2580819623542741,-0.41519478917927954,-0.4545110107113739,-0.11855754566759297,-0.08255177002034866,-0.06940796945966707,0.09303174583451207,0.5270534080656674,0.5399245623082731,0.5508185580993441,-0.02234300347314272,-1.0806332151868856,0.1833406980857627,-0.09623889675043465,1.0961385916857727,-0.4197046864648545,-0.6268932354462772,0.290281849602063,0.8769397346159566,0.16875377833035923,1.0379418568984398,-0.2750368032243615,0.07881040283435928,0.1985694427457653,0.6943918168587752,0.44008186440524805,-0.0529933744210785,0.4484633181367257,-0.8273329793330253,0.4642505410224328,-0.03992159546737534,0.30360000816296584,0.04043321846004823,0.709578327685876,0.19173496343006294,-0.5899501053346142,-0.09880937179579419,0.2603975401935938,-0.056043082739815925,-0.3382553419364465,-0.785244561685181,0.04531706975809095,0.08650748595026014,-0.19850606835271267,-0.40084613761243376,-0.13179909013549296,-0.11827349887142759,-0.3161825601615242,0.14552636632405752,-0.048336403490460755,0.3781665972931639,-0.15187262027762638,-0.478480014496251,-0.10021858733664266,-0.4209051576956272,0.015692060920813235,-0.4045466561278964,-0.5773787172211795,0.07966573499008386,-1.1594367187494468,-0.2747123245401595,0.3671487120424146,-0.13410240307128346,-0.7135899565706117,0.6366733454234756,-0.06632968830792091,-0.025363900754946322,0.033007463168764184,0.13775567880339926,-0.2854912264760513,0.4792017061727522,-0.34776111160112777,-1.0081401321044015,0.44198603432102856,1.1635390566357333,-0.8782781174250605,0.07091584190509903,0.8543413705967963,-0.007129116368581365,-0.42582603265788466,0.7128223383864043,-1.46739769227508,-0.8981339190309632,-0.3586980412578258,0.7073619561585812,-0.7285432979808109,-0.39424541054464324,0.3100546456785683,-0.1281694923259563,-0.2850100767690893,0.2842499381737662,-0.0766790138416438,0.2948814816321101,0.29731818649252595,0.5186612084849195,0.7352923984677694,-0.4210088361489006,0.2529098754755408,-0.4705335000166808,-0.7391551237275068,-0.851040868704329,-0.15584742619967845,-0.0017765466405765054,-0.04993956360527449,-0.6820908781928064,0.3963112750858851,-0.5210582416521492,0.3758526778654355,-0.002634053982658312,-1.1898618617869667,-0.45865733892946425,-0.329973488735487,0.2493364633008253,1.389199368259342,-0.14472954740089605,-0.11772428399964308,-1.1568003048698914,0.002878628510078335,0.031421937577654296,0.6692187493369638,-0.5672311821281979,0.052671208695848654,-0.040316385983722,-0.5034735469883799,0.4758436728733396,-0.239790057174579,-0.3520124829468142,0.3773038060520636,-0.08883148972777347,0.14450951367994422,-0.1281202932972227,0.01108625766001109,-0.196163612058684,0.24561046497997568,0.06808466918340168,-0.2495284941191357,-0.8316992917826549,0.1791486108394527,0.0752107933682481,-0.3817246813594945,-0.2755709638268635,0.6958913176795734,0.1607694286311227,-0.19336458007365362,0.06915539875473461,-0.13127883562250964,0.6306624615987325,0.0453282949826061,-0.7062588404779604,0.01780392989370816,-0.6980995171621405,-0.2604691405361442,-0.08178608945522953,1.5928785614445344,-0.27252891927187567,-0.5767830040807017,-0.3490522494557443,0.07860205910702284,-0.2991909527449027,0.3156765343592288,-0.054183882953931284,0.0760881557337233,0.2497950182309902,-0.19922983495557256,0.05465263358709161,0.15422534946477245,-0.2821383349760932,0.3358373411636082,0.23171385513016196,0.6154807482651419,0.2915242654731831,0.6558842123598999,-0.06558713492909005,0.3166878412355071,-1.034091042830695,-0.3236573586784034,0.3983696109517352,-0.9369316660694205,-0.08494910800903091,-0.3124815366429565,1.4234433730514122,-1.1022421327518583,-0.08803890336591425,-0.4814134275835679,-0.4810639842730691,-0.5772726687265883,0.03472516337363593,-0.031374419486829924,-0.4840574729633681,-0.21893914355230365,-0.41880301048489765,-0.18727361353240563,-0.006033542617301657,0.328675420930564,-0.73884537253281,0.6913536550237604,0.5475350637906483,-0.5092010676827812,0.3911393379800143,-0.23596210146150992,-0.6752381296011302,0.0707284718605766,-0.22483890078083066,0.6842504129788887,0.06652809322820805,0.25742577675456435,0.6769978524617344,-0.1645785426293462,0.42594413510327306,0.3226915847082365,0.08696086976840231,-0.1569991216207214,-0.523907503021169,-0.13994877009826123,-0.8611516168042501,-1.0483884158762324,0.8544049991872249,0.20759767705478122,-1.001101701774814,0.18677836744551235,0.6750155214187513,-0.2606507914448839,1.1326238122913295,-0.7691654419300805,0.004880804580494086,-0.2391364607961236,-0.16512084389156156,-0.05390799130662352,0.0045929756684200095,-0.657562886800847,-0.17283492189384853,-0.06338586497850714,-0.2494809719768871,0.5328953996067674,-0.20363934295883834,-0.21696559266993903,-0.05272498261598452,0.5503773102327286,0.03627069303985869,-0.019256253158680403,-0.5553207915168248,0.4547327546802925,-0.0393734098397777,0.07295190102269626,-0.3202209323828011,0.004563387723301536,0.10489665673686822,0,-1.1024086381935807,0.5498320126938464,0.40457789778546527,0.15735977812947113,0.45757292006071565,-0.4009265918531864,0,-0.16836912235327328,0,0.491323356511591,-0.11426046443844397,-0.6698451209123968,-1.671546861848434,-0.20306305177662748,-0.41936016220495276,0.10630953563481862,-0.21671625557104546,0.26528172061998057,-0.15822274288334315,-0.6572644477625958,-0.19906827578906255,-0.29205047299423725,-0.06900038122988629,1.302122234489118,-0.3282487901639667,0.5987908416674449,0.28184736006517075,-0.37458851732510795,0.4197384149690777,0.3422204558643516,0.05397153743601535,0.11714296572510718,0.29170442235672134,0.10330523263822991,-0.7543089476068999,0.2230660966144974,0.1059666551860278,-1.1631328039200568,0.7553264850332706,-0.28716484354467076,-0.08756842051968616,-0.4634810926902001,0.3847956291887833,-0.10582813787600615,-0.16641372129469834,-0.3162742429316526,0.0449148494002822,0.8467665261899293,0.3611095085069714,-0.10287862939619757,-0.038173446082586215,0.19320575307066812,-1.292462721775186,1.1971697684188098,-0.5091415172071808,-0.5114772465417505,-0.03148614516361087,0.018684796534447545,0.13666693967964882,0.20503560398941548,0.5235033495629243,-0.3152763261434469,0.9922965454571983,0.21354646410238906,-0.5645799888838874,-0.08289382324254024,-0.1832551705782478,0.6001563308539638,0.4772051592473926,-0.6842333045696259,-0.5045793097275244,0.31358856094727683,0.17349877829052762,0.1260655259149203,0.3019435509415465,-1.154827966935785,-0.007648668232815542,-0.23161065641977188,0.0557752476593546,0.25967067016738865,-0.3154005156853442,-0.8795531432404649,-0.06606512312442106,0.11344189406289903,-0.055620575080012086,-0.35120193193372096,-0.5954944460958347,0.4761598934373787,0.026597364877971597,0.039970183584237644,-0.21218044797791277,0.17663253102377685,0.39173951729231327,0.2950896119219727,0.36778716379646453,0.6319049067900909,0.2501970807779955,0.15238579299123461,0.7327176242403577,-0.5921251399187436,0.5592778875877902,-0.2482556937781655,0.5453139125365496,-0.657354210864475,0.5441607070145014,-0.018824922718879228,0.14267673667048603,0.2150723466827661,-0.3169813824019143,-0.6969050757740392,-0.018759680297202486,0.12837059807772272,0.34545652281417427,-0.931396321168257,0.16064887339074252,0.8308706497680692,0.16715662940016074,0.19406597585260543,0.6030448981945544,-0.023364054609132767,0.08784276575746681,-0.6884507639460294,0.40364645212698896,-0.2801331661673063,-0.3331396098510579,-0.4581600137418904,-0.10875279078213185,0.17388596483147145,1.0273011316899532,1.2527899099793072,-0.44260130042042456,-0.20221618368804722,0.5872663862160016,0.28775819334354785,-0.2865331229315029,-0.11379470093544373,0.766549462994127,-0.5268930624074227,-0.0036923455310441528,-0.16414671186174973,0.17927238660602848,0.041165715496504524,-0.5117873669936617,-0.2904597829224385,1.1313381991634146,0.4420360969894657,-0.025008749304557376,-0.5200272759850699,0.30187394896181263,-0.05990659909649041,0.3895979516228181,0.930046385429069,-0.17869461348104976,0.44810901837227735,0.1556877988529694,0.2717018982992495,-0.14041115780077512,-0.06101176872462018,0.1957195193382143,0.3736516561837186,-0.6200422565354491,0.5001772014239837,-1.6073914081377871,-0.8149099853244739,0.18341313941802365,-0.05309784161701264,0.1621938160880841,0.07305017089927442,0.08982283637084618,-0.08257749423622318,0.15495461029109658,-0.25634915701489336,0.4049976570526748,-0.9266285296787026,-0.3660259417021088,-0.43987042407496724,-0.4265030088994415,0.6937940030527745,-0.2816496123898274,0.08870275702671959,-0.7243610937032072,-0.22212217137504867,-0.31332846230740186,0.25103752340741287,0.6199439622001657,-0.14374920479582137,-0.06769598281640674,1.16801375504191,-0.4051236442068746,0.3510281704388826,0.011021166750834838,-0.020431036365947394,0.4370967301263565,0.5559086742878874,-0.2126335990080288,0.5070835363453446,0.5613457363953125,0.311839861643822,0.019162599819975146,0.1625030063632925,-0.5031774481391547,-0.12907546930328406,-0.31298557367006874,0.09592705475017177,-0.035412500178300055,-0.36050727536915095,-0.21776860226783304,0.20492962420203853,0.0822764032730732,0.13468099320738408,0.45092632864383997,-0.7218136045207011,0.1634710850885619,-0.4122734169202195,-0.19940646418655839,-0.34615549623205494,-0.229579919666352,0.020292770137986943,-0.12398556145450815,0.09191592639067975,0.07336216444926241,0.5955563038059855,0.30534431756623304,-0.0710538994587956,0.3155913498308659,-0.1469651923052769,-0.10512389131454608,-0.087744173744886,-0.9498696886586186,0.825279678061356,-1.5405031778400693,-1.0292929016032146,-0.2821564569904498,1.015945070712747,-0.23215856390809686,0.19596126660783988,-0.013409170906162421,1.2255718632995671,-0.24972188071253115,0.49879452431513327,-0.1672594448559078,-1.7921823016910785,0.40707441823823654,-0.09370489164336585,0.2890884307797116,0.12606704593263532,-0.47828870524253647,-0.5520029303601454,-0.3372146513816783,0.23384203285130262,-0.8096416126444775,-0.41892963096508185,-0.06774889554539859,-0.025608457417350405,-0.12539730445860275,0.8402168657737912,0.0342314472616172,-1.2019811935365519,0.16393968274393933,0.0793733194639673,0.2782939898410313,0.6542597895869409,0.2575845231009593,1.1631342581562132,0.8619093182574349,-0.08365918572813401,-0.23586188139843586,0.03830964033409193,0.46970155077902886,0.10423653960147908,0.39363862536932726,-0.33690292579274195,-0.7926734720694362,-0.2849789724643501,-0.004601223641970057,-0.06916477792742427,0.6863044962014967,0.04232091952661052,0.08546366558322624,-0.5345218521561643,-0.5861592511258765,0.1483276827840715,-0.2147252013685546,-0.10415539200332749,-0.32446842367180695,-0.25266051696963177,-0.49964583148224295,0.46594990269805214,-0.3333854968099308,-0.14578523402523602,-0.014964447941626748,-0.34832804729994415,0.19310521365106822,0.3946770023663031,-0.25535972844125354,-0.33552926785503845,1.246542350558567,0.4657644208326835,-0.5475680409115019,0.09381548687486876,0.02628433979547698,0.006970768404012784,-0.12866588272717194,0.24228013976738133,0.5714995163609158,0.9822280899831812,-0.4737715715989924,0.23174175441594996,-0.5507361368728656,0.03116267095285415,-0.19289069087457222,0.08689956987892136,0.24532220651586045,0.1481556950064234,-0.39294152774455343,0.06596413316561861,-0.37057201160218933,0.11828980376472342,1.1695476510232998,-0.2828272101032963,1.0920458799748956,-0.08472151266554162,-0.10861058974971843,0.0044289785108583835,0.9688718750455618,0.2567543979346545,-1.0125683931373837,-0.14218570532269767,0.006182121645084915,0.2075942359890755,-0.04205806721226957,-0.12733765200505653,0.05870198079696655,0.3865284513082,1.5500750045430545,-0.4103655900438241,0.1150916161871324,-0.657719443735702,-0.0006373388754996878,0.10798399001479354,0.4181621066872691,0.3518130210740173,0.2549474394300286,-0.8752464046979209,-0.2261739819143223,0.380265946534506,-0.016711925987385176,0.13229984672070375,0.2001475109645118,0,-0.15516446638282827,-0.4651198042016502,-0.3287348181746992,-0.04591245937597371,-0.43442983702719634,1.244863668761285,0.7101450188860585,0.3755857334931241,-0.18842462690358064,-0.394445787871516,-1.0543235605787935,0.6059820104768561,-0.16852497440577524,-0.9839314590104129,0.5723318187716393,0.11033455408535586,0.4024024343532494,-0.013722747598457374,-0.6894451288274266,-1.0381559085133936,0.39004114752449615,-0.16923000279953204,0.6445729261395127,-0.2210812764406975,0.33422217177362956,-0.225284061967906,0.5920660504009414,-1.7710399826707341,-0.052011739728143436,0.841151071652535,-0.1495324771956456,0.08117560998926716,-0.21365710681281486,0.22210974712023368,-0.5573092672171207,0.2036089556515336,-0.3835539570947671,0.25482033425398193,0.7909174424729122,-0.3026409795946605,0.1316318340044368,-0.6000570512315276,0.38636900943065605,0.11801141201396026,0.11392323890206797,0.11563142628973098,-0.4265163103152205,-0.3487271331647651,-0.2812008455181726,-1.1275013343493823,0.24108007803714804,0.07003081136291056,-0.9763078421226319,0.04211632481248702,0.3898335202512695,-0.0558603268587506,0.2307247707025724,1.1180868371866275,-0.01860260624912898,0.1175220190780859,-0.7740395396811013,-0.08494885675949959,0.6833884943972988,0.7287405633156445,0.05774537177206113,-0.388261979916673,-0.4587409028061269,0.043554010009499,0.4060033091140348,0.04080236151447042,-0.23763696176199417,-0.5011188488283745,-0.41616564628198505,-0.7454817662554462,-0.005138633551421079,0.6216252316332631,-0.13796806086590468,-0.1474623604248376,-0.22511634197205296,-0.5160088075277999]}